/*!
 * The following copyright notice may not be removed under any circumstances.
 * 
 * Copyright:
 * Generated in 2010 by FontLab Studio. Copyright info pending.
 * 
 * Full name:
 * TitilliumText22L-600wt
 * 
 * Manufacturer:
 * Campivisivi
 * 
 * Designer:
 * Campivisivi
 * 
 * License information:
 * http://scripts.sil.org/OFL
 */
Cufon.registerFont({"w":530,"face":{"font-family":"Titillium","font-weight":600,"font-stretch":"normal","units-per-em":"1000","panose-1":"0 0 0 0 0 0 0 0 0 0","ascent":"750","descent":"-250","x-height":"11","bbox":"-32 -796 1000 240","underline-thickness":"50","underline-position":"-50","unicode-range":"U+0020-U+2122"},"glyphs":{" ":{"w":235},"C":{"d":"493,-101r3,88v0,0,-114,24,-193,24v-209,0,-256,-124,-256,-357v0,-243,55,-359,256,-359v89,0,193,25,193,25r-3,87v0,0,-113,-17,-178,-17v-138,0,-167,76,-167,264v0,183,25,262,169,262v59,0,176,-17,176,-17","w":535},"c":{"d":"254,-510v50,0,144,16,144,16r-4,82v0,0,-79,-9,-117,-9v-109,0,-136,43,-136,164v0,133,22,178,137,178v38,0,117,-8,117,-8r3,82v0,0,-97,16,-146,16v-156,0,-207,-75,-207,-268v0,-181,60,-253,209,-253","w":436},"d":{"d":"465,-700r0,700r-94,0r0,-29v0,0,-74,39,-141,39v-116,0,-185,-58,-185,-260v0,-178,61,-260,208,-260v41,0,108,11,118,12r0,-202r94,0xm243,-77v58,-1,128,-29,128,-29r0,-309v-11,-1,-70,-10,-112,-10v-87,0,-118,56,-118,176v0,140,42,171,102,172","w":546},"e":{"d":"262,-76v77,0,184,-9,184,-9r2,75v0,0,-114,21,-199,21v-150,-1,-204,-84,-204,-257v0,-186,80,-264,213,-264v138,0,207,71,207,231r-6,69r-318,0v0,90,32,134,121,134xm140,-284r231,0v0,-104,-33,-142,-113,-142v-78,0,-117,41,-118,142","w":507},"f":{"d":"179,-414r0,414r-95,0r0,-414r-60,0r0,-85r60,0r0,-39v0,-144,37,-184,139,-184v33,0,105,9,105,9r-1,78v0,0,-52,-2,-83,-2v-50,0,-65,22,-65,100r0,38r137,0r0,85r-137,0","w":337},"g":{"d":"267,240v-154,0,-224,-33,-224,-153v0,-54,25,-85,77,-124v-20,-13,-31,-40,-31,-71v0,-21,36,-79,36,-79v-40,-21,-76,-59,-76,-150v0,-125,82,-173,195,-173v48,0,103,13,103,13r148,-3r0,78r-81,0v15,18,26,40,26,85v0,134,-67,171,-199,171v-10,0,-36,-2,-46,-4v0,0,-15,39,-15,52v0,35,9,41,113,41v151,0,201,31,201,148v0,120,-90,169,-227,169xm285,5v-33,0,-102,-5,-102,-5v-34,26,-46,44,-46,78v0,55,31,77,131,77v88,0,130,-23,130,-79v0,-63,-28,-70,-113,-71xm241,-246v74,0,105,-22,105,-91v0,-72,-29,-92,-103,-92v-68,0,-99,24,-99,92v0,62,24,91,97,91","w":524},"h":{"d":"175,0r-94,0r0,-720r94,0r0,241v0,0,81,-31,144,-31v138,0,171,75,171,249r0,261r-94,0r0,-260v0,-113,-13,-162,-94,-162v-55,0,-127,23,-127,23r0,399","w":563},"i":{"d":"76,0r0,-499r95,0r0,499r-95,0xm76,-596r0,-105r95,0r0,105r-95,0","w":247},"j":{"d":"85,-6r0,-493r95,0r0,494v0,128,-36,173,-171,241r-41,-79v96,-55,117,-77,117,-163xm85,-602r0,-104r95,0r0,104r-95,0","w":256},"k":{"d":"175,0r-94,0r0,-712r94,0r0,410r68,-6r132,-191r107,0r-154,232r158,267r-107,0r-134,-216r-70,6r0,210","w":504},"l":{"d":"78,0r0,-712r95,0r0,712r-95,0","w":251},"m":{"d":"175,0r-94,0r0,-499r93,0r0,30v0,0,51,-29,107,-36v19,-3,38,-4,53,-3v47,2,79,16,102,42v36,-14,113,-44,178,-44v136,0,171,69,171,249r0,261r-94,0r0,-227v0,-143,-6,-195,-94,-195v-59,0,-123,29,-125,31v6,15,10,78,10,132r0,259r-94,0r0,-257v0,-122,-12,-165,-94,-165v-55,0,-119,30,-119,30r0,392","w":858},"A":{"d":"26,0r178,-694r199,0r176,693r-98,0r-45,-155r-270,0r-43,156r-97,0xm278,-604r-91,355r229,0r-89,-355r-49,0","w":605},"p":{"d":"81,218r0,-717r94,0r0,30v0,0,71,-41,137,-41v128,0,187,71,187,255v0,202,-68,266,-221,266v-44,0,-94,-9,-103,-11r0,218r-94,0xm296,-424v-54,0,-121,33,-121,33r0,308v9,1,58,8,97,8v99,0,130,-49,130,-181v0,-125,-39,-168,-106,-168","w":544},"q":{"d":"254,11v-153,0,-209,-93,-209,-253v0,-170,56,-268,228,-268v54,0,183,11,183,11r0,718r-94,0r0,-231v0,0,-45,23,-108,23xm273,-425v-101,0,-133,60,-133,182v0,108,31,168,114,168v55,0,108,-26,108,-26r0,-320v0,0,-60,-4,-89,-4","w":537},"r":{"d":"81,0r0,-499r94,0r0,59v0,0,71,-53,163,-71r0,100v-92,18,-163,61,-163,61r0,350r-94,0","w":358},"s":{"d":"422,-489r-2,80v0,0,-115,-16,-177,-16v-60,0,-96,15,-96,64v0,38,23,49,114,64v132,21,177,51,177,149v0,117,-75,159,-197,159v-67,0,-181,-21,-181,-21r4,-81v0,0,118,16,169,16v76,0,110,-16,110,-70v0,-42,-21,-52,-110,-66v-125,-21,-181,-46,-181,-148v0,-112,90,-151,185,-151v74,0,185,21,185,21","w":491},"u":{"d":"384,-499r95,0r0,499r-95,0r0,-29v0,0,-78,40,-140,40v-142,0,-171,-70,-171,-250r0,-260r95,0r0,259v0,122,9,165,93,165v56,0,123,-30,123,-30r0,-394","w":559},"w":{"d":"22,-499r94,0r88,414r19,0r104,-405r100,0r104,405r19,0r88,-414r94,0r-111,499r-156,0r-89,-363r-89,363r-155,0","w":754},"y":{"d":"19,-499r94,0r113,408r30,0r114,-408r94,0r-196,716r-94,0r59,-217r-78,0","w":483},"z":{"d":"54,-415r0,-85r371,0r0,85r-257,330r257,0r0,85r-371,0r0,-85r257,-330r-257,0","w":479},"Z":{"d":"60,-601r0,-93r450,0r0,108r-329,475r0,18r329,0r0,93r-450,0r0,-107r329,-475r0,-19r-329,0","w":570},"0":{"d":"264,-671v158,0,247,85,247,349v0,252,-91,333,-247,333v-155,0,-246,-80,-246,-333v0,-264,90,-349,246,-349xm265,-578v-99,0,-143,55,-143,257v0,191,47,239,143,239v96,0,142,-48,142,-240v0,-200,-42,-256,-142,-256"},"1":{"d":"53,-519r211,-141r91,0r0,660r-97,0r0,-548r-160,106"},"2":{"d":"479,0r-424,0r0,-89r173,-177v82,-84,136,-139,136,-212v0,-71,-43,-97,-132,-97v-72,0,-165,19,-165,19r-7,-89v0,0,100,-26,193,-26v143,0,211,57,211,181v0,100,-42,157,-136,251r-143,146r294,0r0,93"},"3":{"d":"58,-647v0,0,107,-24,195,-24v162,0,218,56,218,175v0,93,-62,127,-91,146v63,26,106,57,106,158v0,135,-65,203,-218,203v-102,0,-220,-24,-220,-24r11,-88v0,0,109,18,197,18v88,-1,130,-35,130,-106v0,-77,-54,-101,-123,-103r-133,0r0,-89r133,0v48,0,108,-44,108,-102v0,-69,-41,-94,-123,-94v-87,0,-180,16,-180,16"},"5":{"d":"76,-661r391,0r0,94r-303,0r-17,181v0,0,73,-31,129,-31v137,0,215,56,215,200v0,148,-83,227,-223,227v-102,0,-224,-29,-224,-29r11,-88v0,0,123,24,210,24v75,0,126,-47,126,-129v0,-84,-51,-114,-124,-114v-72,0,-135,31,-135,31r-77,-16"},"7":{"d":"53,-567r0,-94r414,0r0,121r-250,554r-91,-27r241,-531r0,-23r-314,0"},"8":{"d":"268,-671v142,0,241,58,241,174v0,83,-28,116,-98,154v65,36,108,73,108,164v0,143,-113,190,-251,190v-135,0,-248,-42,-248,-179v0,-99,41,-136,104,-175v-65,-39,-93,-77,-93,-155v0,-114,93,-173,237,-173xm268,-82v88,0,147,-30,147,-109v0,-62,-41,-87,-98,-105r-100,0v-59,18,-92,49,-92,108v0,75,58,106,143,106xm269,-578v-84,0,-134,24,-134,94v0,52,28,80,82,102r100,0v56,-22,87,-50,87,-102v0,-69,-49,-94,-135,-94"},"E":{"d":"83,0r0,-694r427,0r0,93r-331,0r0,208r271,0r0,91r-271,0r0,209r331,0r0,93r-427,0","w":561},"F":{"d":"83,0r0,-694r427,0r0,93r-331,0r0,246r271,0r0,92r-271,0r0,263r-96,0","w":548},"G":{"d":"354,-271r0,-87r193,0r0,345v0,0,-142,24,-227,24v-212,0,-272,-130,-272,-358v0,-236,63,-358,269,-358v105,0,230,28,230,28r-4,85v0,0,-122,-18,-213,-18v-146,0,-182,76,-182,263v0,184,31,264,179,264v53,0,121,-11,124,-11r0,-177r-97,0","w":604},"H":{"d":"499,0r0,-305r-319,0r0,305r-97,0r0,-694r97,0r0,296r319,0r0,-296r98,0r0,694r-98,0","w":680},"K":{"d":"449,0r-161,-294r-108,6r0,288r-97,0r0,-694r97,0r0,312r106,-6r155,-306r113,0r-181,347r190,347r-114,0","w":595},"Q":{"d":"484,149r-89,-145v-21,4,-44,7,-71,7v-214,0,-276,-122,-276,-354v0,-230,62,-362,276,-362v214,0,277,131,277,362v0,158,-28,262,-110,314r83,136xm324,-83v145,0,176,-82,176,-260v0,-172,-33,-268,-176,-268v-143,0,-176,95,-176,268v0,174,32,260,176,260","w":649},"R":{"d":"466,0r-111,-250r-175,0r0,250r-97,0r0,-694r259,0v153,0,227,64,227,217v0,106,-38,169,-118,201r122,276r-107,0xm469,-475v0,-86,-41,-127,-127,-127r-162,0r0,260r163,0v94,0,126,-53,126,-133","w":620},"S":{"d":"479,-683r-8,88v0,0,-140,-17,-198,-17v-90,0,-136,30,-136,97v0,74,41,90,159,119v141,37,197,74,197,196v0,147,-90,210,-230,210v-75,0,-211,-23,-211,-23r10,-88v0,0,129,17,200,17v90,0,134,-31,134,-113v0,-66,-35,-87,-143,-112v-147,-34,-214,-75,-214,-204v0,-131,90,-193,234,-193v77,0,206,23,206,23","w":532},"T":{"d":"-6,-601r0,-93r500,0r0,93r-200,0r0,601r-98,0r0,-601r-202,0","w":488},"V":{"d":"472,-694r101,0r-173,694r-200,0r-174,-694r101,0r148,601r50,0","w":599},"N":{"d":"83,0r0,-694r164,0r248,576r20,0r0,-576r97,0r0,694r-160,0r-252,-576r-20,0r0,576r-97,0","w":695},"\u2013":{"d":"0,-315r500,0r0,86r-500,0r0,-86","w":500},"$":{"d":"474,-669r-7,86v0,0,-71,-9,-132,-14r-27,213v128,35,180,72,180,188v0,144,-88,206,-225,206r-5,0r-15,116v0,0,-59,-3,-59,-7r14,-113v-68,-6,-142,-19,-142,-19r10,-86v0,0,77,11,144,15r28,-222v-134,-33,-195,-74,-195,-197v0,-128,88,-189,230,-189r15,0r14,-104r59,0r-14,109v63,6,127,18,127,18xm139,-505v0,63,29,83,111,106r26,-201r-3,0v-89,0,-134,30,-134,95xm393,-193v0,-55,-25,-78,-97,-99r-26,210v82,-2,123,-33,123,-111"},"!":{"d":"220,0r0,-132r102,0r0,132r-102,0xm223,-241r-3,-459r102,0r-3,459r-96,0"},"a":{"d":"441,-345r0,226v1,34,19,44,49,48r-3,81v-70,0,-99,-11,-127,-36v0,0,-87,37,-174,37v-90,0,-140,-58,-140,-157v0,-102,54,-141,160,-150r140,-12r0,-36v0,-51,-27,-76,-74,-76v-74,0,-192,12,-192,12r-4,-82v0,0,125,-20,201,-20v107,0,164,47,164,165xm346,-234r-129,10v-52,4,-75,29,-75,76v0,50,22,77,61,77v64,0,143,-25,143,-25r0,-138","w":524},"o":{"d":"265,-510v158,0,218,91,218,256v0,168,-48,265,-218,265v-171,0,-220,-93,-220,-265v0,-167,56,-256,220,-256xm265,-75v103,0,122,-60,122,-179v0,-119,-33,-171,-122,-171v-96,0,-124,48,-124,171v0,124,21,179,124,179","w":528},"J":{"d":"229,-694v0,212,1,369,1,583v0,159,-60,182,-198,182r0,-90v75,0,100,-10,100,-100r0,-575r97,0","w":310},"t":{"d":"331,-414r-147,0r0,218v0,90,5,118,62,118v28,0,85,-5,85,-5r5,82v0,0,-67,12,-102,12v-109,0,-144,-41,-144,-185r0,-240r-67,0r0,-85r67,0r0,-150r94,0r0,150r147,0r0,85","w":359},"n":{"d":"175,0r-94,0r0,-499r94,0r0,29v0,0,82,-40,144,-40v139,0,172,75,172,249r0,261r-95,0r0,-260v0,-113,-13,-162,-93,-162v-56,0,-128,30,-128,30r0,392","w":566},"#":{"d":"523,-175r-106,0r0,175r-84,0r0,-175r-138,0r0,175r-84,0r0,-175r-105,0r0,-80r105,0r0,-154r-105,0r0,-80r105,0r0,-175r84,0r0,175r138,0r0,-175r84,0r0,175r106,0r0,80r-106,0r0,154r106,0r0,80xm333,-255r0,-154r-138,0r0,154r138,0"},"W":{"d":"32,-694r101,0r120,595r24,0r125,-591r110,0r126,591r24,0r118,-595r101,0r-150,694r-161,0r-114,-549r-110,549r-162,0","w":913},"@":{"d":"937,-305r0,17v0,247,-68,298,-181,298v-58,0,-96,-10,-121,-51v-37,19,-108,50,-167,50v-98,0,-180,-44,-180,-251v0,-166,41,-267,199,-267v40,0,109,24,109,24r0,-15r94,0r0,200v0,206,13,220,66,220v55,0,85,-21,85,-208r0,-18v0,-234,-97,-328,-337,-328v-241,0,-360,114,-360,373v0,278,104,375,360,375v40,0,143,-10,143,-10r4,91v0,0,-99,10,-147,10v-296,0,-456,-105,-456,-466v0,-326,172,-464,456,-464v299,0,433,142,433,420xm475,-83v45,0,97,-19,129,-33v-6,-36,-8,-84,-8,-148r0,-139v0,0,-56,-17,-91,-17v-100,0,-121,51,-121,179v0,133,43,158,91,158","w":985},"`":{"d":"24,-758r231,94r-28,74r-234,-84","w":247},"M":{"d":"83,0r0,-694r163,0r179,556r180,-556r161,0r0,694r-97,0r0,-576r-15,0r-178,550r-103,0r-178,-550r-15,0r0,576r-97,0","w":849},"U":{"d":"169,-216v0,99,59,130,149,130v93,0,152,-32,152,-130r0,-478r98,0r0,478v0,162,-88,225,-250,225v-158,0,-246,-63,-246,-225r0,-478r97,0r0,478","w":640},"X":{"d":"134,-694r157,275r156,-275r109,0r-199,350r199,344r-109,0r-156,-271r-157,271r-109,0r202,-344r-202,-350r109,0","w":581},"Y":{"d":"329,-297r0,297r-97,0r0,-297r-216,-397r108,0r156,288r154,-288r109,0","w":559},"\u2122":{"d":"7,-575r0,-60r200,0r0,60r-58,0r0,243r-66,0r0,-243r-76,0xm236,-331r0,-304r82,0r58,192r62,-192r81,0r0,304r-62,0r0,-208r-56,191r-47,0r-56,-191r0,208r-62,0"},"\u00d7":{"d":"239,-528r182,188r183,-188r63,62r-184,187r185,189r-63,61r-184,-187r-183,187r-62,-61r184,-189r-184,-187","w":651},"I":{"d":"80,0r0,-694r97,0r0,694r-97,0","w":257},"O":{"d":"324,-83v145,0,176,-82,176,-260v0,-172,-33,-268,-176,-268v-143,0,-176,95,-176,268v0,174,32,260,176,260xm324,11v-214,0,-276,-122,-276,-354v0,-230,62,-362,276,-362v214,0,277,131,277,362v0,236,-62,354,-277,354","w":649},"\u201c":{"d":"303,-727r-46,228r-144,0r54,-228r136,0","w":430},"~":{"d":"460,-381r8,90v0,0,-50,53,-110,53v-56,0,-141,-48,-184,-48v-43,0,-103,45,-103,45r-9,-90v0,0,55,-53,117,-53v56,0,136,48,183,48v38,0,98,-45,98,-45"},"\u2014":{"d":"0,-315r1000,0r0,86r-1000,0r0,-86","w":1000},"L":{"d":"466,0r-383,0r0,-694r97,0r0,601r286,0r0,93","w":504},"B":{"d":"83,-694r255,0v129,0,208,51,208,173v0,94,-28,136,-84,165v62,23,103,63,103,161v0,142,-85,195,-217,195r-265,0r0,-694xm341,-306r-162,0r0,216r165,0v75,0,121,-28,121,-112v0,-90,-71,-104,-124,-104xm334,-604r-155,0r0,210r160,0v76,0,108,-39,108,-112v0,-70,-37,-98,-113,-98","w":614},"D":{"d":"323,0r-240,0r0,-694r240,0v213,0,267,128,267,335v0,211,-50,359,-267,359xm490,-359v0,-144,-26,-243,-167,-243r-144,0r0,510r144,0v141,0,167,-122,167,-267","w":637},"P":{"d":"335,-221r-155,0r0,221r-97,0r0,-694r252,0v154,0,228,75,228,229v0,154,-74,244,-228,244xm180,-314r155,0v89,0,129,-58,129,-151v0,-93,-40,-136,-129,-136r-155,0r0,287","w":601},"b":{"d":"309,-510v136,0,189,69,189,253v0,203,-61,268,-241,268v-56,0,-176,-12,-176,-12r0,-711r94,0r0,232v0,0,72,-30,134,-30xm257,-75v122,0,144,-54,144,-182v0,-120,-28,-166,-103,-166v-56,0,-123,21,-123,21r0,322v0,0,59,5,82,5","w":543},"v":{"d":"19,-499r98,0r108,420r33,0r109,-420r97,0r-135,499r-176,0","w":482},"x":{"d":"21,-499r102,0r108,181r109,-181r101,0r-149,250r149,249r-102,0r-108,-181r-108,181r-102,0r149,-249","w":463},"6":{"d":"480,-654r-9,89v0,0,-94,-13,-178,-13v-107,0,-163,68,-163,196v0,1,88,-34,152,-34v147,0,224,65,224,207v0,144,-87,220,-235,220v-168,0,-241,-124,-241,-342v0,-250,102,-340,263,-340v84,0,187,17,187,17xm275,-327v-69,3,-146,30,-146,30v1,121,38,216,142,216v87,0,134,-42,134,-128v0,-82,-48,-118,-130,-118"},"9":{"d":"52,-7r9,-87v0,0,94,13,178,13v110,0,164,-69,165,-195v0,-1,-92,31,-156,31v-141,0,-220,-66,-220,-206v0,-140,93,-220,233,-220v169,0,243,121,243,341v0,258,-100,341,-265,341v-84,0,-187,-18,-187,-18xm256,-334v64,0,149,-30,149,-30v-2,-124,-43,-216,-144,-216v-81,0,-133,48,-133,129v0,82,45,117,128,117"},"<":{"d":"410,-459r-255,148r255,155r0,100v-70,-36,-264,-158,-347,-204r0,-98r347,-201r0,100"},">":{"d":"318,-311r-255,-148r0,-100r347,201r0,98v-83,46,-277,168,-347,204r0,-100"},"[":{"d":"261,-749r0,92r-128,0r0,688r128,0r0,92r-224,0r-1,-872r225,0","w":300},"\\":{"d":"473,-22r-103,44r-311,-695r104,-46","w":541},"]":{"d":"36,-657r0,-92r225,0r-1,872r-224,0r0,-92r128,0r0,-688r-128,0","w":300},"|":{"d":"211,162r0,-892r97,0r0,892r-97,0"},"4":{"d":"335,6r0,-120r-309,0r0,-80r181,-466r107,0r-177,453r198,0r0,-207r97,0r0,207r76,0r0,93r-76,0r0,120r-97,0"},"\"":{"d":"285,-464r-87,0r-1,-230r91,0xm128,-464r-87,0r-1,-230r91,0","w":325},"'":{"d":"2,-459r-2,-234r93,0r-5,234r-86,0","w":100},"(":{"d":"122,-750r102,0v0,0,-95,260,-95,449v0,186,95,426,95,426r-102,0v0,0,-97,-226,-97,-426v0,-200,97,-449,97,-449","w":260},")":{"d":"25,-750r102,0v0,0,97,239,97,439v0,200,-97,436,-97,436r-102,0v0,0,95,-250,95,-436v0,-189,-95,-439,-95,-439","w":260},",":{"d":"15,123r48,-240r103,0r-57,240r-94,0","w":170},"-":{"d":"66,-235r0,-92r308,0r0,92r-308,0","w":440},".":{"d":"66,0r0,-132r103,0r0,132r-103,0","w":248},":":{"d":"52,-311r0,-132r102,0r0,132r-102,0xm52,0r0,-132r102,0r0,132r-102,0","w":194},";":{"d":"17,117r54,-246r103,0r-69,246r-88,0xm64,-311r0,-132r102,0r0,132r-102,0","w":213},"=":{"d":"29,-337r0,-87r463,0r0,87r-463,0xm29,-139r0,-87r463,0r0,87r-463,0"},"?":{"d":"391,-530v0,174,-186,203,-186,290r0,38r-100,0r0,-41v0,-132,183,-153,183,-276v0,-68,-27,-95,-116,-95v-49,0,-153,22,-153,22r-12,-92v0,0,115,-28,169,-28v145,0,215,47,215,182xm104,0r0,-132r102,0r0,132r-102,0","w":386},"_":{"d":"27,5r428,0r0,86r-428,0r0,-86","w":520},"{":{"d":"213,-171v0,33,-7,81,-7,117v0,59,18,87,100,92r-1,92v-140,-5,-200,-55,-200,-174v0,-39,7,-97,7,-122v0,-52,-22,-84,-98,-106r0,-80v77,-19,98,-49,98,-102v0,-28,-7,-90,-7,-127v0,-125,60,-171,200,-176r1,92v-82,5,-100,30,-100,90v0,33,7,95,7,124v0,83,-27,114,-100,138v73,24,100,61,100,142","w":317},"}":{"d":"107,-171v0,-81,27,-118,100,-142v-73,-24,-100,-55,-100,-138v0,-29,7,-91,7,-124v0,-60,-17,-85,-100,-90r1,-92v140,5,200,51,200,176v0,37,-7,99,-7,127v0,53,21,83,98,102r0,80v-76,22,-98,54,-98,106v0,25,7,83,7,122v0,119,-60,169,-200,174r-1,-92v83,-5,100,-33,100,-92v0,-36,-6,-84,-7,-117","w":317},"\u2018":{"d":"145,-727r-46,228r-98,0r54,-228r90,0","w":170},"\u2019":{"d":"24,-527r46,-228r98,0r-54,228r-90,0","w":170},"&":{"d":"323,-706v123,0,184,60,184,163v0,94,-43,140,-146,197r122,122v9,-29,22,-90,27,-128r92,2v-9,64,-28,141,-46,186r123,117r-57,65r-114,-106v-64,72,-126,105,-230,105v-156,0,-236,-80,-236,-219v0,-108,58,-164,149,-203v-42,-53,-51,-84,-51,-145v0,-96,68,-156,183,-156xm281,-71v67,0,111,-21,156,-76r-187,-192v-72,27,-111,69,-111,136v0,83,49,132,142,132xm235,-538v0,42,11,74,44,109r23,23v76,-38,109,-66,109,-128v0,-56,-27,-84,-88,-84v-56,0,-88,25,-88,80","w":700},"*":{"d":"446,-507r-129,0r40,124r-57,17r-41,-125r-106,79r-36,-46r107,-79r-104,-76r35,-48r104,74r41,-122r58,19r-40,125r128,0r0,58"},"%":{"d":"409,-285v80,0,117,50,117,141v0,91,-37,143,-117,143v-81,0,-118,-52,-118,-143v0,-91,37,-141,118,-141xm89,-38r311,-659r54,31r-312,659xm364,-144v0,54,9,82,45,82v36,0,44,-27,44,-82v0,-55,-8,-80,-44,-80v-36,0,-45,25,-45,80xm130,-701v80,0,117,50,117,140v0,91,-37,143,-117,143v-81,0,-118,-52,-118,-143v0,-90,37,-140,118,-140xm85,-561v0,55,9,82,45,82v35,0,44,-27,44,-82v0,-55,-9,-80,-44,-80v-36,0,-45,25,-45,80"},"+":{"d":"-10,-232r0,-86r206,0r0,-206r88,0r0,206r208,0r0,86r-208,0r0,208r-88,0r0,-208r-206,0","w":482},"^":{"d":"392,-321r-128,-245r-128,245r-100,0r177,-339r99,0r181,339r-101,0"},"\u201d":{"d":"76,-496r46,-228r98,0r-54,228r-90,0xm237,-496r46,-228r98,0r-54,228r-90,0","w":435},"\u2026":{"d":"75,0r0,-132r103,0r0,132r-103,0xm330,0r0,-132r102,0r0,132r-102,0xm584,0r0,-132r103,0r0,132r-103,0","w":744},"\/":{"d":"77,-17r281,-696r90,32r-281,696"},"\u00a0":{"w":235}}});
